LINEAR
0.000000 0.000000 0.000000 0.000000 0.000000 0.000000 -0.018412 0.000355 -0.024344 -0.005996 0.000935 0.007484 0.003924 -0.010159 0.006320 0.016860 -0.008848 0.016038 0.000005 -0.001219 -0.002823 0.003461 -0.005650 0.000000 0.000000 0.000000 0.000000 0.000000 0.000000 -0.035606 0.021405 -0.015819 -0.001080 0.018965 0.005529 0.008834 0.012568 -0.008595 -0.023133 0.001199 0.032127 -0.011011 -0.017016 0.003145 -0.012775 -0.000806 0.000000 0.000000 0.000000 0.000000 0.000000 0.000000 -0.036395 0.003626 -0.029419 -0.009071 0.024898 -0.009567 -0.005081 0.017680 0.012885 -0.013775 -0.015914 -0.001407 0.018829 0.000326 0.010784 -0.009021 0.018554 0.000000 0.000000 0.000000 0.000000 0.000000 0.000000 -0.024498 0.018948 -0.012835 0.001626 0.016105 0.017776 0.006857 -0.002471 -0.014224 -0.013390 0.003137 0.034432 -0.013629 -0.019329 -0.005941 -0.012313 -0.002320 0.000000 0.000000 0.000000 0.000000 0.000000 0.000000 -0.005177 -0.004099 -0.023885 -0.001658 -0.000027 0.008242 0.004285 -0.007028 0.003121 0.015136 -0.008446 0.014367 0.000597 0.003681 -0.015759 0.001780 -0.007198 -0.022069 0.000000 0.000000 0.000000 0.000000 0.000000 0.000000 0.000000 0.000000 0.000000 0.000000 0.000000 0.000000 0.000000 0.000000 0.000000 0.000000 0.000000 0.000000 0.000000 0.000000 0.000000 0.000000 -0.022069 0.000000 0.000000 0.000000 0.000000 0.000000 0.000000 0.000000 0.000000 0.000000 0.000000 0.000000 0.000000 0.000000 0.000000 0.000000 0.000000 0.000000 0.000000 0.000000 0.000000 0.000000 0.000000 0.000000 0.000000 0.000000 0.000000 0.000000 0.000000 -0.024058 0.018948 -0.011955 0.001626 0.015211 0.017337 0.006892 -0.002471 -0.013789 -0.014230 0.003137 0.035576 -0.013662 -0.019628 -0.006369 -0.012743 -0.001892
-0.022100
