-4.912860 -4.928581 -4.928581 -4.928581 -4.928581 -4.928581 -4.928581
-4.912860 -4.928581 -4.928581 -4.928581 -4.928581 -4.928581 -4.928581
-4.912860 -4.928581 -4.928581 -4.928581 -4.928581 -4.928581 -4.928581
-4.912860 -4.928581 -4.928581 -4.928581 -4.928581 -4.928581 -4.928581
-4.912860 -4.928581 -4.928581 -4.928581 -4.928581 -4.928581 -4.928581
-4.912860 -4.928581 -4.928581 -4.928581 -4.928581 -4.928581 -4.928581
1.546661 1.403320 1.403320 1.403320 1.403320 1.403320 1.403320
1.668698 1.380372 1.380372 1.380372 1.380372 1.380372 1.380372
1.407633 1.425754 1.425754 1.425754 1.425754 1.425754 1.425754
1.407633 1.425754 1.425754 1.425754 1.425754 1.425754 1.425754
1.053365 1.469165 1.469165 1.469165 1.469165 1.469165 1.469165
1.085544 1.510770 1.510770 1.510770 1.510770 1.510770 1.510770
1.272718 1.490184 1.490184 1.490184 1.490184 1.490184 1.490184
1.430320 1.469165 1.469165 1.469165 1.469165 1.469165 1.469165
1.566433 1.447695 1.447695 1.447695 1.447695 1.447695 1.447695
1.793178 1.403320 1.403320 1.403320 1.403320 1.403320 1.403320
1.566433 1.447695 1.447695 1.447695 1.447695 1.447695 1.447695
1.272718 1.490184 1.490184 1.490184 1.490184 1.490184 1.490184
1.430320 1.469165 1.469165 1.469165 1.469165 1.469165 1.469165
1.793178 1.403320 1.403320 1.403320 1.403320 1.403320 1.403320
1.566433 1.447695 1.447695 1.447695 1.447695 1.447695 1.447695
1.430320 1.469165 1.469165 1.469165 1.469165 1.469165 1.469165
1.272718 1.490184 1.490184 1.490184 1.490184 1.490184 1.490184
